

#include "weights.h"

const float input_weights[INPUT_SIZE * HIDDEN_SIZE] = {
  0.004, -0.03 ,  0.005,  0.026, -0.018,  0.003,  0.011, -0.026, -0.024,
  -0.022, -0.007,  0.016, -0.066, -0.031, -0.043, -0.05 , -0.021, -0.024,
  -0.014, -0.022, -0.031,  0.001, -0.03 , -0.024,  0.011,  0.026, -0.033,
   0.033, -0.032,  0.013, -0.017,  0.027, -0.004, -0.02 , -0.073, -0.11 ,
  -0.059, -0.121, -0.16 , -0.155, -0.171, -0.199, -0.12 , -0.204, -0.197,
  -0.197, -0.169, -0.108, -0.137, -0.065, -0.034, -0.055, -0.005,  0.015,
   0.018, -0.015,  0.014,  0.009, -0.003, -0.063, -0.033, -0.065, -0.118,
  -0.135, -0.179, -0.278, -0.247, -0.295, -0.353, -0.367, -0.33 , -0.361,
  -0.332, -0.279, -0.257, -0.254, -0.25 , -0.219, -0.126, -0.1  , -0.085,
  -0.031,  0.014,  0.026,  0.015,  0.034, -0.038, -0.06 , -0.097,  0.025,
  -0.074, -0.114, -0.115, -0.164, -0.17 , -0.078, -0.083, -0.127, -0.094,
  -0.132, -0.072, -0.071, -0.102, -0.1  , -0.076, -0.125, -0.18 , -0.188,
  -0.159, -0.042, -0.006,  0.012, -0.002, -0.005, -0.036,  0.056,  0.048,
   0.102,  0.075,  0.103,  0.057,  0.01 , -0.046, -0.001, -0.068, -0.071,
  -0.057, -0.083, -0.051, -0.043, -0.051, -0.021, -0.111, -0.11 , -0.116,
  -0.105, -0.039, -0.057, -0.077, -0.   , -0.027,  0.005, -0.037,  0.077,
   0.123,  0.168,  0.119,  0.13 ,  0.042,  0.064,  0.043,  0.035, -0.005,
  -0.014, -0.003, -0.025, -0.003, -0.004, -0.014, -0.033, -0.059, -0.111,
  -0.139, -0.076, -0.1  , -0.143, -0.132, -0.034,  0.014,  0.003, -0.005,
   0.098,  0.105,  0.107,  0.111,  0.065, -0.008,  0.049,  0.038, -0.037,
  -0.003,  0.048,  0.016,  0.059,  0.079,  0.063,  0.105,  0.008,  0.019,
  -0.012, -0.018, -0.07 , -0.17 , -0.237, -0.077, -0.057, -0.035,  0.047,
  -0.069,  0.093,  0.084,  0.113, -0.005, -0.069, -0.067, -0.036, -0.036,
  -0.072,  0.02 ,  0.026,  0.064,  0.129,  0.113,  0.123,  0.082,  0.023,
   0.026, -0.019, -0.034, -0.085, -0.191, -0.206, -0.091, -0.068, -0.015,
  -0.098, -0.071, -0.031,  0.058,  0.025, -0.026, -0.104, -0.082, -0.104,
  -0.116, -0.123, -0.103, -0.066,  0.014,  0.026,  0.042,  0.073,  0.11 ,
   0.073,  0.049,  0.023,  0.014, -0.09 , -0.26 , -0.22 , -0.18 , -0.079,
  -0.006, -0.014, -0.139, -0.039, -0.011, -0.024, -0.086, -0.132, -0.121,
  -0.11 , -0.148, -0.201, -0.155, -0.125, -0.065,  0.009,  0.083,  0.145,
   0.147,  0.13 ,  0.101,  0.013, -0.018, -0.134, -0.312, -0.397, -0.264,
  -0.044, -0.028, -0.097, -0.151, -0.095, -0.113, -0.076, -0.134, -0.167,
  -0.179, -0.147, -0.225, -0.152, -0.152, -0.161, -0.189, -0.029,  0.128,
   0.223,  0.176,  0.166,  0.145,  0.059, -0.041, -0.097, -0.283, -0.363,
  -0.287, -0.071, -0.086, -0.119, -0.176, -0.068, -0.099, -0.09 , -0.098,
  -0.116, -0.091, -0.077,  0.023,  0.013, -0.034, -0.155, -0.218,  0.007,
   0.116,  0.18 ,  0.157,  0.157,  0.164,  0.05 , -0.039, -0.149, -0.237,
  -0.319, -0.222, -0.083, -0.061, -0.146, -0.173, -0.088, -0.103, -0.032,
  -0.052,  0.02 ,  0.006,  0.082,  0.176,  0.149,  0.102, -0.054, -0.104,
   0.025,  0.137,  0.147,  0.169,  0.122,  0.07 , -0.012,  0.037, -0.013,
  -0.032, -0.147, -0.127, -0.087, -0.03 , -0.053, -0.151, -0.092,  0.06 ,
   0.101,  0.14 ,  0.135,  0.128,  0.206,  0.227,  0.197,  0.101, -0.09 ,
  -0.023,  0.005,  0.12 ,  0.197,  0.148,  0.032, -0.017,  0.047,  0.029,
   0.049,  0.005, -0.079, -0.154, -0.08 , -0.01 ,  0.04 , -0.139, -0.003,
   0.17 ,  0.165,  0.157,  0.193,  0.162,  0.165,  0.185,  0.219,  0.056,
  -0.064, -0.109, -0.025,  0.08 ,  0.207,  0.131,  0.097,  0.045,  0.041,
   0.068,  0.027, -0.02 , -0.085, -0.172, -0.081, -0.04 ,  0.059, -0.004,
   0.036,  0.2  ,  0.212,  0.193,  0.192,  0.178,  0.154,  0.18 ,  0.152,
   0.026, -0.152, -0.198, -0.003,  0.119,  0.182,  0.116,  0.141,  0.107,
   0.056,  0.078,  0.054, -0.098, -0.174, -0.037, -0.044,  0.01 ,  0.049,
   0.074,  0.018,  0.083,  0.132,  0.121,  0.223,  0.214,  0.11 ,  0.104,
   0.007, -0.118, -0.186, -0.185, -0.03 ,  0.106,  0.123,  0.109,  0.121,
   0.061,  0.072,  0.054,  0.012, -0.122, -0.214, -0.095, -0.026,  0.029,
   0.082,  0.099,  0.029,  0.048,  0.058,  0.071,  0.127,  0.144,  0.01 ,
  -0.043, -0.147, -0.186, -0.185, -0.13 ,  0.021,  0.09 ,  0.111,  0.08 ,
   0.033,  0.048,  0.054,  0.04 , -0.062, -0.158, -0.219, -0.128, -0.111,
  -0.027,  0.02 ,  0.066,  0.08 ,  0.071,  0.04 ,  0.039,  0.013, -0.02 ,
  -0.077, -0.102, -0.193, -0.292, -0.205, -0.154,  0.015,  0.042,  0.012,
  -0.021, -0.007,  0.018,  0.068, -0.04 , -0.104, -0.265, -0.288, -0.086,
  -0.105, -0.048, -0.033,  0.013,  0.157,  0.038,  0.08 ,  0.021, -0.031,
  -0.135, -0.125, -0.166, -0.223, -0.245, -0.235, -0.126, -0.089, -0.026,
  -0.006, -0.032, -0.004,  0.007,  0.031, -0.124, -0.19 , -0.229, -0.226,
  -0.164, -0.052,  0.034,  0.051,  0.005,  0.153,  0.077,  0.082, -0.044,
  -0.09 , -0.124, -0.162, -0.16 , -0.17 , -0.23 , -0.206, -0.132, -0.05 ,
  -0.037, -0.013, -0.025, -0.005,  0.001, -0.049, -0.132, -0.202, -0.215,
  -0.152, -0.075, -0.054, -0.043,  0.077,  0.028,  0.066,  0.024,  0.022,
  -0.061, -0.121, -0.092, -0.102, -0.115, -0.111, -0.13 , -0.079, -0.111,
  -0.046,  0.001, -0.075, -0.015, -0.049, -0.05 , -0.089, -0.175, -0.212,
  -0.126, -0.098, -0.092,  0.022,  0.003, -0.02 ,  0.043,  0.089, -0.05 ,
  -0.069, -0.014, -0.051, -0.029, -0.052, -0.029,  0.037, -0.027, -0.035,
  -0.043, -0.051, -0.034, -0.033, -0.031,  0.006,  0.009, -0.025, -0.046,
  -0.089, -0.082, -0.106, -0.033,  0.032,  0.033, -0.012,  0.089,  0.115,
   0.039,  0.021,  0.025,  0.091,  0.004,  0.042,  0.048,  0.013,  0.   ,
  -0.065, -0.031, -0.037, -0.068, -0.038,  0.033, -0.031, -0.031,  0.003,
   0.003,  0.027,  0.034, -0.028, -0.057, -0.017, -0.027,  0.034,  0.017,
   0.114,  0.204,  0.221,  0.237,  0.209,  0.132,  0.092,  0.1  ,  0.07 ,
  -0.003, -0.023, -0.079, -0.034, -0.014, -0.02 , -0.028, -0.023,  0.049,
   0.106,  0.116,  0.084, -0.088, -0.067, -0.063, -0.004,  0.022, -0.003,
   0.072, -0.005,  0.153,  0.281,  0.238,  0.219,  0.206,  0.169,  0.159,
   0.014,  0.035,  0.013, -0.006, -0.045, -0.061, -0.067,  0.005,  0.119,
   0.167,  0.16 ,  0.043,  0.026, -0.059,  0.005, -0.048, -0.007, -0.009,
   0.013,  0.008,  0.061,  0.123,  0.154,  0.146,  0.133,  0.043,  0.018,
   0.003,  0.003,  0.026,  0.056,  0.07 , -0.016, -0.016, -0.007,  0.06 ,
   0.057,  0.133,  0.049, -0.011, -0.004,  0.007,  0.004,  0.014, -0.027,
   0.002,  0.016,  0.004, -0.017, -0.02 , -0.101, -0.055, -0.082, -0.128,
  -0.092, -0.105, -0.105, -0.115, -0.26 , -0.164, -0.173, -0.18 , -0.26 ,
  -0.096, -0.107, -0.011, -0.007, -0.029, -0.032,  0.011, -0.018,  0.034,
  -0.019, 0.034,  0.004,  0.023, -0.016, -0.002,  0.012, -0.033, -0.029, -0.026,
   0.015,  0.01 ,  0.022, -0.039, -0.041,  0.001, -0.001,  0.001, -0.012,
   0.029,  0.014,  0.012,  0.018,  0.024, -0.008,  0.034,  0.009,  0.026,
  -0.004, -0.023,  0.027, -0.033, -0.016, -0.019, -0.081, -0.084, -0.093,
  -0.077, -0.148, -0.105, -0.189, -0.181, -0.181, -0.056, -0.072, -0.023,
  -0.09 , -0.098, -0.113, -0.13 , -0.093, -0.081, -0.019, -0.028, -0.019,
  -0.006,  0.022, -0.014, -0.017, -0.049, -0.073, -0.046, -0.044, -0.088,
  -0.168, -0.124, -0.118, -0.151, -0.177, -0.205, -0.196, -0.19 , -0.183,
  -0.141, -0.119, -0.196, -0.169, -0.191, -0.178, -0.146, -0.12 ,  0.026,
   0.05 ,  0.023, -0.013, -0.029, -0.004, -0.042, -0.103, -0.047, -0.024,
  -0.125, -0.079, -0.133, -0.114, -0.135, -0.158, -0.223, -0.186, -0.255,
  -0.25 , -0.234, -0.213, -0.216, -0.201, -0.221, -0.094, -0.053, -0.059,
  -0.064, -0.018,  0.013,  0.023, -0.003, -0.061, -0.056, -0.041, -0.047,
  -0.097, -0.12 , -0.091, -0.131, -0.116, -0.134, -0.177, -0.173, -0.179,
  -0.225, -0.214, -0.163, -0.119, -0.137, -0.111, -0.015, -0.022,  0.02 ,
   0.099,  0.06 , -0.009, -0.048,  0.036, -0.003, -0.009, -0.039, -0.064,
  -0.073, -0.061, -0.049, -0.037,  0.017,  0.022, -0.017, -0.032, -0.122,
  -0.141, -0.098, -0.146, -0.109, -0.057, -0.024, -0.068, -0.012,  0.005,
   0.066,  0.127,  0.063,  0.022, -0.062,  0.009, -0.026, -0.057,  0.017,
  -0.024,  0.012,  0.012,  0.046,  0.088,  0.019,  0.042,  0.01 , -0.013,
  -0.058, -0.085, -0.122, -0.086, -0.092, -0.072, -0.041, -0.025, -0.027,
   0.012,  0.072,  0.067, -0.036, -0.09 , -0.082, -0.026,  0.034, -0.066,
   0.076,  0.045, -0.048,  0.006,  0.053,  0.051,  0.064,  0.057,  0.011,
   0.048, -0.036, -0.018, -0.089, -0.099, -0.079, -0.05 , -0.018, -0.071,
  -0.052,  0.032,  0.053,  0.075,  0.033, -0.04 , -0.021, -0.041, -0.039,
   0.012,  0.064, -0.014, -0.044,  0.026,  0.034, -0.013,  0.038,  0.044,
   0.08 ,  0.102,  0.036, -0.047, -0.106, -0.094, -0.039, -0.025, -0.01 ,
  -0.09 , -0.062, -0.069,  0.011,  0.117,  0.023, -0.105, -0.125, -0.108,
   0.047,  0.012,  0.052, -0.037, -0.09 , -0.009, -0.037, -0.018,  0.005,
   0.057,  0.11 ,  0.176,  0.115,  0.023, -0.102, -0.117, -0.02 ,  0.027,
   0.048, -0.023, -0.077, -0.081, -0.01 , -0.02 , -0.074, -0.188, -0.171,
  -0.027,  0.027,  0.068,  0.032, -0.036, -0.067,  0.027, -0.005, -0.005,
   0.029,  0.157,  0.167,  0.15 ,  0.07 , -0.096, -0.289, -0.181,  0.034,
   0.087,  0.04 ,  0.004, -0.04 , -0.008,  0.002, -0.069, -0.085, -0.266,
  -0.205, -0.017,  0.022,  0.052,  0.105, -0.008, -0.03 ,  0.012, -0.006,
   0.077,  0.096,  0.134,  0.109,  0.101, -0.055, -0.376, -0.387, -0.219,
   0.032,  0.096,  0.027,  0.03 , -0.007,  0.052,  0.049, -0.045, -0.178,
  -0.245, -0.17 , -0.093,  0.036,  0.101,  0.182, -0.012,  0.032,  0.042,
   0.047,  0.048,  0.143,  0.093,  0.089,  0.026, -0.194, -0.418, -0.48 ,
  -0.224,  0.005,  0.05 ,  0.001,  0.023,  0.049,  0.124,  0.102, -0.006,
  -0.017, -0.036, -0.038,  0.039, -0.001,  0.055,  0.162,  0.013,  0.13 ,
   0.117,  0.068,  0.105,  0.089,  0.134,  0.186,  0.068, -0.189, -0.442,
  -0.336, -0.144,  0.033,  0.055,  0.042,  0.103,  0.081,  0.17 ,  0.134,
   0.055,  0.064,  0.084,  0.081,  0.064,  0.004, -0.012,  0.105,  0.038,
   0.151,  0.182,  0.163,  0.224,  0.208,  0.18 ,  0.171,  0.054, -0.13 ,
  -0.329, -0.243, -0.068,  0.089,  0.203,  0.163,  0.179,  0.148,  0.076,
   0.126,  0.129,  0.077,  0.171,  0.172,  0.023,  0.009, -0.038,  0.005,
   0.003,  0.077,  0.18 ,  0.253,  0.285,  0.252,  0.179,  0.155,  0.037,
  -0.091, -0.246, -0.181,  0.006,  0.2  ,  0.288,  0.223,  0.134,  0.059,
   0.042,  0.045,  0.022, -0.014,  0.125,  0.249,  0.07 ,  0.059, -0.059,
  -0.143, -0.053,  0.031,  0.157,  0.233,  0.248,  0.236,  0.209,  0.108,
   0.096, -0.017, -0.041,  0.002,  0.182,  0.311,  0.264,  0.175,  0.114,
   0.099,  0.07 ,  0.008, -0.09 , -0.045,  0.269,  0.201,  0.068,  0.005,
  -0.065, -0.086, -0.155, -0.034,  0.079,  0.14 ,  0.194,  0.197,  0.198,
   0.167,  0.169,  0.161,  0.131,  0.209,  0.275,  0.243,  0.13 ,  0.075,
  -0.045, -0.017, -0.053, -0.075, -0.071,  0.105,  0.326,  0.198,  0.05 ,
   0.019, -0.046, -0.083, -0.197, -0.039,  0.031,  0.045,  0.07 , -0.002,
   0.016,  0.061,  0.117,  0.174,  0.244,  0.239,  0.142,  0.058, -0.025,
  -0.036, -0.06 , -0.078, -0.085, -0.163, -0.042,  0.174,  0.223,  0.146,
   0.1  , -0.021,  0.047, -0.029, -0.215, -0.075, -0.103, -0.075, -0.072,
  -0.093, -0.151, -0.035,  0.097,  0.116,  0.152,  0.113,  0.007, -0.098,
  -0.15 , -0.211, -0.135, -0.145, -0.186, -0.159, -0.077,  0.123,  0.16 ,
   0.151,  0.002, -0.001,  0.008, -0.033, -0.21 , -0.117, -0.154, -0.21 ,
  -0.216, -0.201, -0.17 , -0.094, -0.021,  0.049,  0.058, -0.03 , -0.067,
  -0.153, -0.155, -0.186, -0.172, -0.158, -0.138, -0.059, -0.014,  0.185,
   0.134,  0.073, -0.031, -0.044, -0.097, -0.096, -0.184, -0.147, -0.134,
  -0.209, -0.216, -0.166, -0.081, -0.106, -0.004,  0.002, -0.017, -0.078,
  -0.127, -0.122, -0.169, -0.13 , -0.122, -0.125, -0.017, -0.002,  0.101,
   0.16 ,  0.081,  0.076,  0.023, -0.02 , -0.064, -0.106, -0.155, -0.141,
  -0.151, -0.183, -0.118, -0.08 , -0.054, -0.061, -0.059, -0.03 , -0.077,
  -0.074, -0.092, -0.118, -0.153, -0.116, -0.058, -0.024,  0.099,  0.072,
   0.112,  0.176,  0.065, -0.054, -0.004,  0.011,  0.017, -0.076, -0.246,
  -0.159, -0.214, -0.13 , -0.104, -0.065, -0.121, -0.072, -0.121, -0.095,
  -0.126, -0.151, -0.124, -0.133, -0.13 , -0.109, -0.025,  0.036,  0.138,
   0.16 ,  0.08 ,  0.103,  0.066, -0.094, -0.03 ,  0.024,  0.014, -0.013,
  -0.159, -0.116, -0.048, -0.121, -0.097, -0.148, -0.13 , -0.187, -0.156,
  -0.166, -0.183, -0.115, -0.108, -0.115, -0.032, -0.028,  0.023,  0.056,
   0.073,  0.071,  0.035,  0.054,  0.103,  0.008,  0.017, -0.018, -0.002,
  -0.025,  0.066,  0.018,  0.061, -0.022, -0.021, -0.08 , -0.088, -0.116,
  -0.091, -0.146, -0.109, -0.029, -0.021, -0.032, -0.023, -0.01 , -0.029,
  -0.009,  0.023, -0.066, -0.024, -0.019,  0.062,  0.014,  0.002, -0.008,
  -0.031,  0.008, -0.005,  0.038,  0.019,  0.027,  0.023,  0.004, -0.008,
  -0.012, -0.031, -0.012,  0.006,  0.042,  0.054,  0.027,  0.015,  0.047,
   0.072,  0.016, -0.014,  0.015, -0.051,  0.025,  0.014, -0.017,  0.004,
  -0.018,  0.03 ,  0.012,  0.022,  0.039,  0.07 , -0.001,  0.008,  0.013,
   0.043,  0.003,  0.004, -0.001,  0.083,  0.058,  0.064,  0.071,  0.178,
   0.122,  0.062,  0.059,  0.014,  0.07 ,  0.057,  0.004, -0.   ,  0.026,
   0.032, 0.014,  0.034, -0.021, -0.023,  0.014,  0.032,  0.005, -0.02 , -0.016,
   0.034, -0.012,  0.004,  0.005, -0.002, -0.012,  0.032,  0.02 ,  0.025,
  -0.025, -0.02 , -0.004,  0.025,  0.004,  0.014,  0.023, -0.015, -0.023,
  -0.021,  0.006,  0.022, -0.029, -0.014,  0.001,  0.036,  0.065,  0.106,
   0.115,  0.158,  0.107,  0.242,  0.201,  0.197,  0.058,  0.167,  0.189,
   0.153,  0.131,  0.12 ,  0.085,  0.096,  0.037,  0.054,  0.016, -0.007,
   0.001,  0.003, -0.025,  0.007,  0.053,  0.017,  0.099,  0.04 ,  0.117,
   0.155,  0.267,  0.361,  0.376,  0.437,  0.414,  0.369,  0.29 ,  0.3  ,
   0.209,  0.173,  0.176,  0.161,  0.146,  0.174,  0.103,  0.131,  0.118,
   0.023,  0.022, -0.01 , -0.018, -0.006, -0.007,  0.087,  0.048,  0.052,
   0.081,  0.137,  0.256,  0.308,  0.329,  0.323,  0.27 ,  0.319,  0.234,
   0.166,  0.126,  0.095,  0.047,  0.047,  0.025,  0.019, -0.008,  0.034,
   0.082,  0.011, -0.017,  0.035, -0.034, -0.025, -0.039,  0.003,  0.026,
   0.005,  0.086,  0.077,  0.187,  0.173,  0.174,  0.129,  0.102,  0.116,
   0.089,  0.098,  0.036,  0.014, -0.015,  0.036,  0.017, -0.04 , -0.058,
  -0.055, -0.182, -0.14 , -0.041,  0.032,  0.02 , -0.014,  0.124,  0.012,
   0.042, -0.064,  0.011,  0.008,  0.102,  0.018,  0.044,  0.033,  0.098,
   0.142,  0.12 ,  0.126,  0.116,  0.07 ,  0.09 ,  0.032, -0.022, -0.044,
  -0.137, -0.174, -0.165, -0.19 , -0.137,  0.005, -0.029,  0.047, -0.081,
  -0.011,  0.028, -0.069, -0.02 , -0.032, -0.072, -0.086, -0.033, -0.014,
   0.029,  0.083,  0.069,  0.138,  0.075,  0.08 , -0.019, -0.051, -0.108,
  -0.081, -0.142, -0.245, -0.338, -0.309, -0.184, -0.066, -0.049,  0.022,
  -0.022, -0.03 ,  0.033, -0.082, -0.073, -0.085, -0.119, -0.114, -0.139,
  -0.077, -0.036,  0.052,  0.126,  0.116,  0.092, -0.017, -0.052, -0.086,
  -0.133, -0.106, -0.167, -0.252, -0.38 , -0.414, -0.256, -0.087,  0.013,
  -0.06 , -0.077, -0.126, -0.003, -0.119, -0.091, -0.102, -0.115, -0.113,
  -0.078, -0.042, -0.044,  0.032,  0.094,  0.156,  0.042, -0.018, -0.102,
  -0.106, -0.157, -0.143, -0.177, -0.251, -0.436, -0.548, -0.317, -0.087,
  -0.055, -0.116, -0.105, -0.094, -0.036, -0.049, -0.097, -0.101, -0.114,
  -0.094, -0.048, -0.092, -0.101,  0.01 ,  0.086,  0.075, -0.002, -0.087,
  -0.059, -0.105, -0.086, -0.143, -0.138, -0.169, -0.451, -0.621, -0.335,
  -0.116, -0.015, -0.072, -0.128, -0.124, -0.12 , -0.051, -0.081, -0.077,
  -0.09 , -0.137, -0.15 , -0.173, -0.156, -0.089, -0.073, -0.094, -0.117,
  -0.082, -0.073, -0.031, -0.009, -0.057, -0.013, -0.06 , -0.27 , -0.544,
  -0.291, -0.065, -0.079, -0.072, -0.251, -0.157, -0.179, -0.081, -0.137,
  -0.103, -0.147, -0.2  , -0.195, -0.262, -0.289, -0.197, -0.203, -0.208,
  -0.229, -0.145, -0.023,  0.07 ,  0.158,  0.154,  0.223,  0.257,  0.059,
  -0.281, -0.26 , -0.063, -0.08 , -0.153, -0.26 , -0.201, -0.19 , -0.115,
  -0.127, -0.161, -0.168, -0.144, -0.228, -0.207, -0.207, -0.195, -0.128,
  -0.164, -0.226, -0.12 , -0.033,  0.082,  0.169,  0.198,  0.337,  0.361,
   0.352, -0.038, -0.106,  0.009, -0.001, -0.088, -0.219, -0.148, -0.257,
  -0.129, -0.108, -0.115, -0.102, -0.106, -0.113, -0.086, -0.108, -0.074,
  -0.053, -0.059, -0.124, -0.104, -0.095, -0.001, -0.023,  0.142,  0.268,
   0.419,  0.377,  0.116,  0.02 ,  0.086, -0.063, -0.053, -0.154, -0.14 ,
  -0.248, -0.068, -0.039,  0.002, -0.019, -0.   ,  0.009,  0.033, -0.018,
  -0.029,  0.027, -0.029, -0.122, -0.152, -0.133, -0.081, -0.031,  0.055,
   0.166,  0.274,  0.328,  0.135,  0.145,  0.099, -0.051, -0.056, -0.087,
  -0.088, -0.08 ,  0.096,  0.069,  0.116,  0.097,  0.091,  0.15 ,  0.089,
   0.035,  0.002,  0.046, -0.071, -0.129, -0.139, -0.128, -0.099, -0.056,
   0.033,  0.037,  0.121,  0.243,  0.247,  0.093,  0.052, -0.025, -0.003,
  -0.03 , -0.043, -0.029,  0.148,  0.147,  0.188,  0.134,  0.257,  0.301,
   0.24 ,  0.002,  0.007, -0.006, -0.106, -0.148, -0.153, -0.089, -0.052,
   0.016,  0.038,  0.04 ,  0.103,  0.185,  0.308,  0.116,  0.034,  0.005,
  -0.049, -0.021, -0.003, -0.045,  0.036,  0.056,  0.102,  0.179,  0.271,
   0.362,  0.262,  0.113,  0.002, -0.08 , -0.163, -0.145, -0.059, -0.018,
   0.026, -0.009,  0.021,  0.112,  0.056,  0.085,  0.367,  0.124,  0.071,
   0.019, -0.002, -0.109, -0.046, -0.066, -0.065, -0.033,  0.097,  0.181,
   0.277,  0.359,  0.263,  0.199,  0.   , -0.057, -0.079, -0.003,  0.05 ,
   0.068,  0.043,  0.041,  0.077,  0.104,  0.107,  0.104,  0.344,  0.068,
   0.053,  0.013, -0.023, -0.061, -0.149, -0.088, -0.075, -0.038,  0.067,
   0.106,  0.234,  0.324,  0.295,  0.194,  0.104,  0.044,  0.045,  0.115,
   0.126,  0.086,  0.036,  0.054,  0.074,  0.117,  0.095,  0.038,  0.209,
   0.132,  0.013, -0.031,  0.035, -0.039, -0.077, -0.024, -0.032, -0.017,
   0.068,  0.091,  0.166,  0.207,  0.263,  0.168,  0.162,  0.117,  0.107,
   0.13 ,  0.089,  0.099,  0.076,  0.079,  0.105,  0.034,  0.004,  0.067,
   0.136,  0.115, -0.024,  0.018, -0.006,  0.04 , -0.006, -0.042,  0.022,
   0.02 ,  0.022,  0.016,  0.112,  0.15 ,  0.17 ,  0.157,  0.152,  0.119,
   0.098,  0.066,  0.047,  0.113,  0.109,  0.043,  0.019,  0.022,  0.074,
   0.093,  0.107,  0.075,  0.038,  0.019,  0.019,  0.022,  0.015, -0.041,
   0.039,  0.071,  0.06 ,  0.073,  0.072,  0.103,  0.037,  0.015,  0.059,
   0.002, -0.005, -0.033,  0.012,  0.025,  0.045,  0.04 ,  0.036,  0.015,
   0.02 , -0.012,  0.049, -0.026,  0.035,  0.017,  0.018,  0.007, -0.108,
  -0.125, -0.067, -0.   , -0.005,  0.008, -0.021, -0.047, -0.009, -0.028,
  -0.021, -0.055, -0.066, -0.08 , -0.058,  0.02 , -0.016,  0.003,  0.059,
   0.097,  0.048,  0.005,  0.049, -0.003, -0.   , -0.012,  0.019, -0.022,
  -0.119, -0.169, -0.176, -0.203, -0.219, -0.172, -0.172, -0.199, -0.2  ,
  -0.11 , -0.129, -0.167, -0.154, -0.118, -0.062, -0.067, -0.054, -0.063,
   0.014, -0.018,  0.03 ,  0.1  ,  0.068,  0.068, -0.024,  0.031, -0.015,
   0.085, -0.089, -0.174, -0.177, -0.211, -0.232, -0.258, -0.323, -0.367,
  -0.344, -0.372, -0.351, -0.332, -0.258, -0.208, -0.153, -0.115, -0.081,
  -0.015, -0.052, -0.082, -0.067, -0.068,  0.023, -0.001,  0.011,  0.026,
   0.015,  0.023, -0.025, -0.005, -0.006, -0.039, -0.093, -0.091, -0.137,
  -0.102, -0.146, -0.094, -0.153, -0.118, -0.172, -0.098, -0.106, -0.069,
   0.047,  0.034,  0.02 , -0.042,  0.004, -0.014, -0.047, -0.004, -0.024,
  -0.026,  0.024,  0.014, -0.016, -0.018, -0.083, -0.063, -0.062, -0.113,
  -0.118, -0.085, -0.097, -0.149, -0.242, -0.14 , -0.172, -0.175, -0.251,
  -0.126, -0.086,  0.007,  0.002, -0.042, -0.064, -0.022, -0.031, -0.014,
   0.   , -0.001, -0.01 ,  0.01 ,  0.028,  0.021, -0.023, -0.018,  0.012,  0.027,
  -0.034, -0.009, -0.03 ,  0.044, -0.013,  0.005, -0.019,  0.013,  0.011,
   0.014,  0.004, -0.01 ,  0.009,  0.019,  0.025,  0.009, -0.036, -0.008,
  -0.002, -0.031,  0.019, -0.013, -0.029,  0.024,  0.027,  0.097,  0.089,
   0.129,  0.092,  0.13 ,  0.029,  0.051,  0.055, -0.064, -0.04 , -0.022,
   0.036,  0.109,  0.089,  0.087,  0.097,  0.067,  0.01 , -0.035,  0.003,
   0.002, -0.034,  0.025, -0.017,  0.006,  0.019,  0.029,  0.041,  0.052,
   0.142,  0.196,  0.159,  0.207,  0.187,  0.151,  0.066,  0.111,  0.066,
   0.065,  0.147,  0.172,  0.16 ,  0.171,  0.149,  0.152,  0.111,  0.037,
  -0.011, -0.013, -0.033, -0.017,  0.01 , -0.062,  0.024, -0.006,  0.08 ,
   0.107,  0.15 ,  0.153,  0.161,  0.178,  0.169,  0.129,  0.08 ,  0.095,
   0.082,  0.046,  0.113,  0.218,  0.234,  0.224,  0.193,  0.151,  0.176,
   0.133,  0.048,  0.065,  0.011,  0.019,  0.009, -0.022, -0.007,  0.092,
   0.123,  0.123,  0.12 ,  0.145,  0.113,  0.111,  0.021, -0.018, -0.027,
  -0.085, -0.087, -0.059, -0.075, -0.049, -0.014, -0.072, -0.091, -0.041,
  -0.039,  0.063,  0.045, -0.025,  0.019,  0.009, -0.016,  0.062,  0.065,
   0.185,  0.137,  0.12 ,  0.077,  0.143,  0.06 ,  0.024,  0.02 ,  0.002,
  -0.1  , -0.059, -0.068, -0.062, -0.08 , -0.117, -0.099, -0.13 , -0.206,
  -0.237, -0.117, -0.012,  0.058,  0.008,  0.07 , -0.017,  0.056, -0.014,
   0.058,  0.125,  0.053,  0.033,  0.038,  0.056,  0.053,  0.028, -0.005,
  -0.037,  0.005,  0.012,  0.058,  0.028, -0.033, -0.081, -0.135, -0.144,
  -0.204, -0.254, -0.2  , -0.056,  0.081,  0.002,  0.004, -0.031,  0.039,
  -0.023, -0.006,  0.11 ,  0.041, -0.043, -0.047, -0.021, -0.027, -0.04 ,
  -0.019, -0.008,  0.092,  0.157,  0.214,  0.099, -0.016, -0.152, -0.145,
  -0.165, -0.193, -0.231, -0.234, -0.111,  0.003,  0.002,  0.   , -0.005,
  -0.026, -0.158, -0.093,  0.115,  0.019,  0.017, -0.002, -0.037, -0.004,
  -0.026,  0.009,  0.019,  0.054,  0.048,  0.042, -0.068, -0.153, -0.189,
  -0.216, -0.135, -0.067, -0.182, -0.308, -0.284, -0.068, -0.03 ,  0.007,
  -0.06 , -0.059, -0.113, -0.108,  0.013, -0.009,  0.041, -0.015, -0.001,
  -0.053,  0.007, -0.031, -0.019, -0.068, -0.055, -0.105, -0.14 , -0.217,
  -0.193, -0.147, -0.117, -0.067, -0.152, -0.273, -0.399, -0.204, -0.101,
  -0.058, -0.058, -0.114, -0.133, -0.1  , -0.02 , -0.019,  0.041, -0.034,
  -0.014, -0.053, -0.016, -0.014, -0.09 , -0.109, -0.19 , -0.189, -0.09 ,
  -0.089, -0.096, -0.098, -0.042, -0.104, -0.109, -0.266, -0.299, -0.215,
  -0.136, -0.105, -0.079, -0.109, -0.178, -0.059, -0.017,  0.016, -0.015,
  -0.063, -0.017,  0.047,  0.036,  0.026, -0.026, -0.139, -0.175, -0.037,
   0.09 ,  0.151,  0.081,  0.042,  0.042, -0.001, -0.106, -0.158, -0.207,
  -0.09 , -0.122, -0.053, -0.074, -0.148, -0.218, -0.095,  0.03 ,  0.031,
  -0.033, -0.056,  0.019,  0.115,  0.068,  0.077,  0.011,  0.021,  0.022,
   0.158,  0.299,  0.295,  0.16 ,  0.091,  0.077, -0.009, -0.004, -0.061,
  -0.103, -0.065, -0.111, -0.096, -0.06 , -0.096, -0.188, -0.055,  0.066,
   0.003, -0.041, -0.031,  0.05 ,  0.06 ,  0.062,  0.094,  0.126,  0.111,
   0.155,  0.25 ,  0.428,  0.275,  0.156,  0.099,  0.059,  0.023, -0.053,
  -0.069, -0.081, -0.036, -0.142,  0.022, -0.021, -0.006, -0.11 ,  0.034,
   0.059, -0.022, -0.02 , -0.067,  0.024, -0.013,  0.055,  0.074,  0.153,
   0.129,  0.101,  0.291,  0.415,  0.281,  0.145,  0.083,  0.008, -0.017,
  -0.048, -0.1  , -0.106, -0.031, -0.154, -0.038, -0.061,  0.009, -0.045,
   0.079, -0.005, -0.033,  0.004, -0.043, -0.031, -0.013,  0.003,  0.109,
   0.18 ,  0.113,  0.117,  0.242,  0.356,  0.198,  0.043,  0.034,  0.015,
   0.016, -0.045, -0.121, -0.089, -0.015, -0.083,  0.016, -0.012,  0.029,
   0.101,  0.084,  0.003, -0.024, -0.037,  0.029, -0.042, -0.032, -0.017,
   0.115,  0.209,  0.092,  0.092,  0.207,  0.234,  0.122,  0.083,  0.031,
   0.034,  0.015, -0.012, -0.022, -0.02 ,  0.017, -0.074,  0.009,  0.032,
   0.035,  0.098,  0.083, -0.04 , -0.052, -0.019,  0.   ,  0.008, -0.024,
  -0.005,  0.08 ,  0.127,  0.05 ,  0.037,  0.133,  0.125,  0.103,  0.086,
   0.074,  0.034,  0.012, -0.022, -0.017, -0.042, -0.022, -0.104, -0.073,
   0.007,  0.043,  0.117,  0.159,  0.013, -0.062, -0.016, -0.022, -0.017,
  -0.042, -0.043,  0.012,  0.08 ,  0.017,  0.016,  0.064,  0.148,  0.058,
   0.132,  0.131,  0.076,  0.029, -0.017, -0.03 , -0.047, -0.085, -0.026,
   0.016, -0.006, -0.068, -0.004,  0.195,  0.052, -0.007, -0.06 , -0.044,
  -0.075, -0.094, -0.082, -0.085, -0.097, -0.084,  0.025,  0.034,  0.069,
   0.109,  0.098,  0.083,  0.081,  0.003,  0.001, -0.061, -0.132, -0.13 ,
  -0.04 , -0.025, -0.027, -0.022,  0.048,  0.138,  0.063, -0.07 , -0.093,
  -0.067, -0.098, -0.105, -0.165, -0.159, -0.136, -0.067,  0.035,  0.009,
   0.03 ,  0.006,  0.077,  0.059,  0.056, -0.053, -0.058, -0.075, -0.036,
  -0.031, -0.056, -0.075,  0.005,  0.026,  0.099,  0.058,  0.019, -0.125,
  -0.154, -0.144, -0.108, -0.118, -0.173, -0.112, -0.043,  0.02 , -0.004,
  -0.013, -0.015, -0.009, -0.008,  0.09 , -0.001, -0.066, -0.073, -0.075,
  -0.024, -0.088, -0.09 , -0.01 , -0.002,  0.028,  0.116,  0.137,  0.011,
  -0.123, -0.153, -0.179, -0.182, -0.118, -0.071, -0.08 , -0.074, -0.072,
  -0.079, -0.167, -0.09 , -0.111, -0.074, -0.022,  0.049,  0.035,  0.061,
   0.018, -0.001, -0.082, -0.065, -0.013, -0.   ,  0.034,  0.06 ,  0.193,
   0.121, -0.075, -0.065, -0.103, -0.093, -0.103, -0.141, -0.144, -0.164,
  -0.173, -0.162, -0.231, -0.154, -0.122,  0.035,  0.126,  0.149,  0.222,
   0.152,  0.186,  0.078,  0.014, -0.032,  0.028,  0.027, -0.005,  0.05 ,
   0.143,  0.148,  0.063,  0.084,  0.15 ,  0.122,  0.03 ,  0.015,  0.014,
  -0.074, -0.078, -0.091, -0.041,  0.075,  0.097,  0.133,  0.227,  0.306,
   0.298,  0.272,  0.197,  0.035,  0.009, -0.011, -0.002, -0.026, -0.027,
   0.082, -0.036,  0.045,  0.187,  0.283,  0.283,  0.271,  0.254,  0.264,
   0.132,  0.184,  0.135,  0.146,  0.149,  0.216,  0.221,  0.245,  0.306,
   0.331,  0.268,  0.149,  0.112,  0.01 ,  0.018, -0.023, -0.02 ,  0.009,
  -0.012, -0.022,  0.043,  0.155,  0.178,  0.21 ,  0.163,  0.174,  0.107,
   0.113,  0.088,  0.112,  0.142,  0.133,  0.082,  0.078,  0.092,  0.076,
   0.092,  0.211,  0.151,  0.064,  0.025,  0.061, -0.038,  0.003, -0.01 ,
   0.029,  0.018,  0.025,  0.021, -0.061, -0.048, -0.02 , -0.012, -0.049,
  -0.083, -0.115, -0.073, -0.097, -0.24 , -0.144, -0.141, -0.126, -0.198,
  -0.144, -0.061, -0.011, -0.006,  0.013, -0.068,  0.032, -0.007, -0.028,
  -0.032, -0.024,  0.026, -0.027,  0.029,  0.01 , -0.008,  0.013,  0.018,  0.004,
   0.033,  0.002,  0.032, -0.048, -0.001, -0.044, -0.031, -0.012, -0.021,
   0.007,  0.02 , -0.024, -0.021,  0.01 , -0.011,  0.003, -0.023,  0.019,
  -0.015,  0.034, -0.008,  0.027,  0.028,  0.018, -0.025, -0.055, -0.034,
  -0.077, -0.013, -0.012,  0.008,  0.014,  0.012,  0.061, -0.019, -0.05 ,
  -0.049,  0.037,  0.004,  0.036,  0.008, -0.068, -0.065,  0.02 , -0.005,
   0.019,  0.034, -0.027,  0.015, -0.012, -0.022, -0.028,  0.053,  0.04 ,
  -0.031, -0.014,  0.025, -0.022,  0.013,  0.015,  0.072,  0.095,  0.129,
   0.068,  0.111,  0.091,  0.134,  0.149,  0.114,  0.071,  0.019,  0.001,
  -0.062,  0.025,  0.007, -0.033,  0.028, -0.005, -0.039,  0.031,  0.059,
   0.029, -0.05 , -0.136, -0.118, -0.109, -0.173, -0.225, -0.143, -0.086,
  -0.077, -0.064, -0.043,  0.017,  0.039,  0.007,  0.1  ,  0.114,  0.142,
   0.015,  0.011, -0.069, -0.   ,  0.023, -0.029,  0.015, -0.058,  0.037,
   0.013, -0.051, -0.062, -0.041, -0.066, -0.088, -0.13 , -0.076, -0.048,
   0.008, -0.035, -0.052, -0.038, -0.047,  0.061,  0.11 ,  0.14 ,  0.079,
   0.093,  0.022, -0.057, -0.048,  0.022, -0.01 ,  0.015,  0.064, -0.038,
   0.036, -0.014,  0.008, -0.039, -0.056, -0.059, -0.039, -0.028,  0.03 ,
  -0.031,  0.069,  0.029,  0.052,  0.013,  0.006,  0.037,  0.077,  0.036,
   0.104,  0.123,  0.068, -0.1  , -0.089,  0.01 ,  0.01 , -0.043, -0.111,
  -0.117,  0.005, -0.049, -0.065, -0.003, -0.07 , -0.082, -0.089, -0.103,
  -0.066, -0.095, -0.121, -0.156, -0.171, -0.118, -0.111, -0.042, -0.002,
   0.002,  0.022,  0.159,  0.011, -0.034, -0.071,  0.005, -0.062, -0.118,
  -0.13 , -0.106,  0.054, -0.021, -0.102,  0.001, -0.04 , -0.094, -0.139,
  -0.166, -0.188, -0.208, -0.199, -0.219, -0.22 , -0.157, -0.099, -0.052,
  -0.038,  0.042,  0.064,  0.08 , -0.008, -0.117, -0.026, -0.067, -0.045,
  -0.085, -0.106, -0.083,  0.04 ,  0.007,  0.016,  0.018, -0.081, -0.045,
  -0.104, -0.166, -0.136, -0.149, -0.249, -0.205, -0.162, -0.126, -0.076,
  -0.039, -0.029,  0.01 , -0.024, -0.087, -0.138, -0.148, -0.087,  0.   ,
  -0.012, -0.06 , -0.16 , -0.119, -0.07 , -0.037, -0.017,  0.017,  0.028,
  -0.046, -0.039, -0.07 , -0.09 , -0.118, -0.199, -0.196, -0.156, -0.086,
  -0.038, -0.036, -0.017,  0.01 , -0.046, -0.126, -0.297, -0.307, -0.137,
  -0.082, -0.006, -0.069, -0.188, -0.208, -0.03 , -0.049,  0.002,  0.078,
   0.093,  0.051,  0.063,  0.012, -0.025, -0.12 , -0.168, -0.121, -0.068,
  -0.011, -0.046, -0.003, -0.044, -0.043, -0.013, -0.139, -0.269, -0.315,
  -0.185, -0.014, -0.076, -0.085, -0.217, -0.191, -0.027,  0.04 ,  0.045,
   0.068,  0.096,  0.095,  0.063,  0.03 ,  0.005, -0.042, -0.022,  0.093,
   0.103,  0.006, -0.005,  0.025,  0.041,  0.063,  0.06 , -0.011, -0.107,
  -0.163, -0.066,  0.02 , -0.014, -0.08 , -0.198, -0.111, -0.049,  0.024,
   0.088,  0.084,  0.057,  0.091, -0.009,  0.047,  0.042,  0.097,  0.171,
   0.218,  0.192,  0.086,  0.079,  0.093,  0.194,  0.232,  0.168,  0.131,
   0.1  , -0.03 , -0.044, -0.053,  0.065, -0.052, -0.162, -0.094, -0.037,
   0.048,  0.041,  0.039,  0.02 ,  0.03 , -0.046,  0.053,  0.132,  0.179,
   0.214,  0.288,  0.191,  0.1  ,  0.08 ,  0.071,  0.137,  0.146,  0.127,
   0.045, -0.018, -0.06 , -0.149, -0.046, -0.019, -0.041, -0.108, -0.018,
   0.007,  0.056,  0.076,  0.011,  0.013, -0.089, -0.089,  0.067,  0.167,
   0.219,  0.274,  0.297,  0.245,  0.093,  0.021,  0.021, -0.033, -0.015,
  -0.038, -0.078, -0.105, -0.087, -0.166, -0.031, -0.059, -0.012, -0.036,
   0.035, -0.003,  0.005,  0.019,  0.057,  0.045,  0.019, -0.013,  0.102,
   0.222,  0.26 ,  0.367,  0.275,  0.25 ,  0.015, -0.096, -0.135, -0.152,
  -0.143, -0.143, -0.13 , -0.181, -0.12 , -0.176, -0.034, -0.034, -0.023,
  -0.105, -0.078, -0.18 , -0.117, -0.043,  0.083,  0.176,  0.11 ,  0.077,
   0.208,  0.24 ,  0.341,  0.358,  0.268,  0.144, -0.048, -0.109, -0.185,
  -0.147, -0.205, -0.219, -0.175, -0.159, -0.145, -0.143, -0.043, -0.019,
  -0.048, -0.027, -0.2  , -0.217, -0.207, -0.128,  0.077,  0.188,  0.224,
   0.242,  0.223,  0.333,  0.328,  0.335,  0.152,  0.056, -0.09 , -0.138,
  -0.125, -0.115, -0.14 , -0.141, -0.088, -0.169, -0.217, -0.166, -0.095,
  -0.04 , -0.032, -0.083, -0.254, -0.28 , -0.2  , -0.173, -0.017,  0.097,
   0.13 ,  0.16 ,  0.198,  0.239,  0.25 ,  0.133,  0.054, -0.074, -0.117,
  -0.127, -0.146, -0.079, -0.142, -0.155, -0.113, -0.122, -0.163, -0.088,
   0.016,  0.048, -0.046, -0.086, -0.226, -0.257, -0.206, -0.192, -0.119,
  -0.034, -0.005, -0.015,  0.04 ,  0.052,  0.019, -0.022, -0.008, -0.033,
  -0.08 , -0.069, -0.031, -0.01 , -0.021, -0.09 , -0.079, -0.116, -0.156,
  -0.1  ,  0.035, -0.004, -0.077, -0.084, -0.211, -0.209, -0.205, -0.096,
  -0.063, -0.118, -0.125, -0.062, -0.101, -0.069, -0.087, -0.048,  0.008,
  -0.014,  0.   ,  0.027, -0.026, -0.032,  0.018, -0.052, -0.061, -0.138,
  -0.107, -0.041,  0.005, -0.002, -0.063, -0.047, -0.157, -0.186, -0.011,
  -0.037, -0.048, -0.05 , -0.062, -0.089, -0.071, -0.045, -0.014, -0.033,
   0.004, -0.036,  0.025,  0.031,  0.036,  0.027,  0.04 , -0.031, -0.024,
  -0.069, -0.112, -0.113,  0.002,  0.037, -0.002, -0.085, -0.089, -0.038,
   0.018, -0.023, -0.01 , -0.051, -0.06 , -0.058, -0.089, -0.057, -0.086,
  -0.005, -0.007,  0.002,  0.07 ,  0.076,  0.057,  0.065,  0.096,  0.004,
  -0.039, -0.05 , -0.052, -0.006, -0.038, -0.015, -0.034, -0.094, -0.132,
  -0.133, -0.06 , -0.069, -0.042, -0.   , -0.029, -0.098, -0.125, -0.019,
  -0.025,  0.018,  0.048,  0.11 ,  0.105,  0.135,  0.117,  0.141,  0.092,
   0.047, -0.024, -0.095, -0.04 ,  0.024,  0.002,  0.033, -0.034, -0.026,
  -0.179, -0.297, -0.274, -0.186, -0.181, -0.1  , -0.105, -0.115, -0.08 ,
  -0.102, -0.156, -0.086, -0.026, -0.002, -0.005,  0.086,  0.128,  0.099,
   0.038,  0.039,  0.054, -0.084,  0.033, -0.002,  0.02 , -0.029, -0.009,
  -0.003, -0.066, -0.218, -0.278, -0.257, -0.292, -0.325, -0.299, -0.282,
  -0.36 , -0.357, -0.331, -0.268, -0.231, -0.279, -0.258, -0.22 , -0.155,
  -0.033, -0.043, -0.078,  0.011, -0.073, -0.054, -0.002,  0.036, -0.001,
   0.021,  0.034, -0.008, -0.009, -0.06 , -0.08 , -0.137, -0.132, -0.229,
  -0.184, -0.26 , -0.235, -0.235, -0.309, -0.326, -0.313, -0.316, -0.252,
  -0.238, -0.138, -0.103, -0.133, -0.009, -0.016, -0.004, -0.025,  0.028,
   0.033, -0.022, -0.026, -0.015, -0.02 , -0.061, -0.144, -0.074, -0.148,
  -0.066, -0.166, -0.156, -0.127, -0.299, -0.204, -0.151, -0.142, -0.282,
  -0.127, -0.136, -0.028,  0.004, -0.037, -0.054,  0.025, -0.018,  0.026,
  -0.01, -0.009,  0.034, -0.019, -0.012, -0.02 ,  0.003,  0.016, -0.016,  0.032,
   0.035, -0.017, -0.002, -0.014, -0.009,  0.02 ,  0.038,  0.025, -0.001,
  -0.012, -0.016, -0.016, -0.035, -0.017, -0.021,  0.012, -0.01 , -0.01 ,
  -0.035,  0.028,  0.007,  0.012, -0.026, -0.021, -0.029, -0.055, -0.092,
  -0.033, -0.072, -0.11 , -0.111, -0.043, -0.044,  0.092,  0.087,  0.081,
   0.012, -0.013, -0.03 , -0.035, -0.047, -0.026,  0.002, -0.002,  0.004,
  -0.035,  0.012, -0.023, -0.017, -0.011,  0.007, -0.052, -0.039, -0.044,
  -0.099, -0.1  , -0.01 , -0.013,  0.065,  0.185,  0.24 ,  0.407,  0.369,
   0.353,  0.194,  0.069,  0.06 ,  0.067,  0.053,  0.042,  0.067,  0.034,
   0.007,  0.002,  0.034, -0.024,  0.016,  0.04 , -0.025,  0.014,  0.095,
   0.072,  0.099,  0.058,  0.148,  0.131,  0.198,  0.212,  0.222,  0.275,
   0.251,  0.299,  0.212,  0.166,  0.127,  0.065,  0.024, -0.013, -0.004,
   0.032, -0.012, -0.016, -0.032, -0.027, -0.003,  0.045,  0.037,  0.152,
   0.233,  0.186,  0.129,  0.182,  0.108,  0.128,  0.1  ,  0.096,  0.078,
   0.059,  0.006,  0.054,  0.076,  0.085,  0.118,  0.144,  0.093,  0.104,
   0.077, -0.038, -0.067, -0.075,  0.022,  0.032,  0.021,  0.124,  0.09 ,
   0.21 ,  0.285,  0.262,  0.178,  0.13 ,  0.079,  0.041, -0.004, -0.052,
  -0.088, -0.081, -0.034, -0.012, -0.056,  0.05 ,  0.041,  0.084,  0.096,
   0.15 ,  0.145,  0.089, -0.074, -0.045, -0.007, -0.012,  0.037,  0.047,
   0.223,  0.307,  0.26 ,  0.248,  0.123,  0.101,  0.071,  0.017, -0.045,
  -0.089, -0.129, -0.216, -0.209, -0.194, -0.211, -0.091, -0.085, -0.02 ,
   0.021,  0.087,  0.025, -0.026, -0.115, -0.015, -0.002,  0.047,  0.071,
   0.055,  0.243,  0.349,  0.275,  0.203,  0.107,  0.071,  0.015, -0.032,
  -0.043, -0.1  , -0.158, -0.253, -0.35 , -0.313, -0.231, -0.129, -0.093,
  -0.046, -0.031,  0.026, -0.091, -0.228, -0.123, -0.028,  0.001, -0.037,
   0.113,  0.183,  0.26 ,  0.322,  0.215,  0.154,  0.121, -0.006, -0.015,
  -0.04 , -0.078, -0.099, -0.175, -0.114, -0.117, -0.078, -0.05 , -0.047,
  -0.034, -0.025, -0.039, -0.097, -0.21 , -0.387, -0.223, -0.109, -0.112,
   0.018,  0.04 ,  0.201,  0.252,  0.319,  0.137,  0.01 ,  0.028, -0.078,
  -0.145, -0.196, -0.202, -0.163, -0.098,  0.083,  0.191,  0.171,  0.103,
   0.031, -0.019, -0.036, -0.047, -0.125, -0.281, -0.466, -0.236, -0.155,
  -0.028,  0.02 ,  0.118,  0.21 ,  0.311,  0.13 ,  0.063, -0.096, -0.158,
  -0.21 , -0.229, -0.271, -0.286, -0.189, -0.013,  0.141,  0.283,  0.233,
   0.152,  0.041, -0.017, -0.095, -0.082, -0.156, -0.34 , -0.381, -0.233,
  -0.142, -0.004,  0.09 ,  0.102,  0.207,  0.239,  0.05 , -0.13 , -0.222,
  -0.28 , -0.291, -0.254, -0.271, -0.215, -0.162, -0.078,  0.096,  0.189,
   0.137,  0.042, -0.038, -0.097, -0.152, -0.204, -0.257, -0.311, -0.405,
  -0.202, -0.157,  0.001,  0.062,  0.093,  0.216,  0.109, -0.05 , -0.196,
  -0.253, -0.263, -0.166, -0.178, -0.151, -0.111, -0.098, -0.143, -0.001,
   0.057, -0.   , -0.035, -0.074, -0.179, -0.169, -0.247, -0.197, -0.25 ,
  -0.204, -0.054, -0.02 ,  0.055,  0.026,  0.07 ,  0.133,  0.018, -0.112,
  -0.212, -0.201, -0.148, -0.133, -0.082, -0.075, -0.121, -0.166, -0.092,
  -0.02 , -0.062, -0.025, -0.038, -0.121, -0.091, -0.131, -0.091, -0.146,
  -0.045,  0.01 ,  0.076,  0.08 ,  0.066, -0.045,  0.064,  0.137,  0.002,
  -0.078, -0.108, -0.103, -0.048, -0.002, -0.013, -0.124, -0.159, -0.134,
  -0.049,  0.032,  0.026, -0.03 , -0.036, -0.017,  0.076,  0.066,  0.096,
   0.065,  0.069,  0.111,  0.187,  0.244,  0.074, -0.006,  0.008,  0.197,
   0.06 ,  0.062,  0.041,  0.087,  0.062, -0.003, -0.099, -0.146, -0.086,
  -0.051,  0.068,  0.191,  0.096, -0.013,  0.01 ,  0.085,  0.163,  0.168,
   0.17 ,  0.125,  0.136,  0.114,  0.237,  0.256,  0.063,  0.019,  0.09 ,
   0.208,  0.176,  0.161,  0.143,  0.078,  0.053, -0.101, -0.082, -0.172,
  -0.112, -0.019,  0.201,  0.291,  0.148, -0.009,  0.039,  0.114,  0.17 ,
   0.133,  0.199,  0.163,  0.097,  0.181,  0.334,  0.314,  0.091, -0.035,
   0.05 ,  0.16 ,  0.195,  0.213,  0.145,  0.02 , -0.03 , -0.108, -0.235,
  -0.191, -0.187, -0.01 ,  0.165,  0.238,  0.138,  0.055,  0.048,  0.081,
   0.136,  0.093,  0.134,  0.123,  0.063,  0.067,  0.312,  0.202,  0.017,
  -0.016,  0.068,  0.225,  0.3  ,  0.165,  0.1  , -0.075, -0.107, -0.135,
  -0.215, -0.254, -0.162,  0.055,  0.216,  0.16 ,  0.088,  0.071,  0.102,
   0.092,  0.027, -0.019,  0.044,  0.04 ,  0.086,  0.118,  0.293,  0.151,
   0.059,  0.02 ,  0.029,  0.052,  0.255,  0.16 ,  0.009, -0.034, -0.044,
  -0.153, -0.104, -0.136, -0.015,  0.074,  0.202,  0.181,  0.115,  0.167,
   0.086,  0.046,  0.003, -0.022,  0.014, -0.04 , -0.   ,  0.045,  0.292,
   0.175,  0.074,  0.023, -0.005,  0.055,  0.204,  0.144, -0.007, -0.016,
  -0.02 , -0.027,  0.002,  0.   ,  0.091,  0.108,  0.069,  0.13 ,  0.146,
   0.103,  0.1  ,  0.078, -0.001,  0.015,  0.019, -0.116, -0.029,  0.03 ,
   0.126,  0.142,  0.034,  0.06 ,  0.065,  0.186,  0.2  ,  0.145,  0.088,
   0.009, -0.018,  0.03 ,  0.005,  0.037, -0.023, -0.017,  0.003,  0.032,
   0.079,  0.06 ,  0.13 ,  0.103,  0.065, -0.031, -0.076, -0.117, -0.056,
   0.023,  0.073,  0.121, -0.058,  0.037,  0.087,  0.174,  0.169,  0.168,
   0.195,  0.12 ,  0.036,  0.031,  0.029, -0.035, -0.1  , -0.192, -0.181,
  -0.107, -0.001,  0.063,  0.055,  0.107,  0.082, -0.015, -0.028, -0.063,
  -0.05 , -0.019, -0.021,  0.004, -0.019,  0.013,  0.025,  0.097,  0.123,
   0.226,  0.257,  0.255,  0.131,  0.013, -0.049, -0.082, -0.147, -0.204,
  -0.177, -0.171, -0.045, -0.041,  0.031,  0.031,  0.021, -0.098, -0.131,
  -0.168, -0.14 , -0.068, -0.022,  0.031,  0.013,  0.006,  0.035,  0.05 ,
   0.095,  0.196,  0.209,  0.212,  0.063,  0.021, -0.012, -0.076, -0.048,
  -0.074, -0.089, -0.065, -0.049, -0.061, -0.087, -0.13 , -0.182, -0.213,
  -0.169, -0.146, -0.14 ,  0.007,  0.08 ,  0.012, -0.033, -0.033, -0.025,
  -0.016, -0.053,  0.097,  0.047, -0.009,  0.019, -0.006,  0.051, -0.008,
  -0.033, -0.022, -0.055, -0.078, -0.162, -0.277, -0.299, -0.347, -0.329,
  -0.354, -0.325, -0.225, -0.155, -0.078, -0.024,  0.033, -0.026, -0.031,
  -0.02 ,  0.   , -0.052, -0.073, -0.048, -0.089, -0.045, -0.031, -0.09 ,
  -0.069, -0.145, -0.183, -0.185, -0.266, -0.177, -0.179, -0.195, -0.207,
  -0.209, -0.226, -0.196, -0.11 , -0.066, -0.01 ,  0.046,  0.019,  0.009,
  -0.019,  0.013,  0.013, -0.002,  0.058,  0.073,  0.016,  0.031,  0.095,
   0.04 ,  0.032,  0.07 ,  0.031,  0.195,  0.041,  0.094,  0.12 ,  0.189,
   0.056,  0.066, -0.041, -0.001,  0.017,  0.02 , -0.025,  0.025, -0.015,
   0.018, -0.006,  0.007,  0.025, -0.027, -0.02 , -0.005,  0.023,  0.024, -0.012,
  -0.01 ,  0.031,  0.027,  0.005, -0.005, -0.042, -0.06 ,  0.02 , -0.035,
  -0.001, -0.007, -0.002,  0.01 ,  0.004,  0.01 ,  0.009,  0.017,  0.015,
   0.022,  0.006, -0.003,  0.035,  0.025,  0.026,  0.076,  0.098,  0.131,
   0.115,  0.111,  0.147,  0.138,  0.149,  0.122,  0.019,  0.021, -0.081,
   0.014,  0.118,  0.142,  0.113,  0.105,  0.04 ,  0.059,  0.027, -0.02 ,
  -0.024,  0.006,  0.023,  0.031,  0.019,  0.002,  0.041,  0.059,  0.138,
   0.192,  0.151,  0.081,  0.138,  0.124,  0.128,  0.087,  0.088,  0.06 ,
   0.027,  0.112,  0.158,  0.229,  0.233,  0.183,  0.239,  0.124,  0.02 ,
   0.007,  0.015, -0.019, -0.03 , -0.012, -0.019,  0.014,  0.053,  0.007,
   0.048,  0.086,  0.081, -0.006,  0.026,  0.009, -0.026, -0.009,  0.016,
   0.023,  0.028,  0.113,  0.206,  0.285,  0.266,  0.284,  0.254,  0.308,
   0.138,  0.03 ,  0.001,  0.016, -0.012, -0.024, -0.09 , -0.028, -0.018,
  -0.018, -0.061, -0.053, -0.06 , -0.079, -0.119, -0.139, -0.182, -0.2  ,
  -0.16 , -0.099, -0.078,  0.031,  0.081,  0.158,  0.199,  0.263,  0.316,
   0.363,  0.195,  0.067,  0.016,  0.018,  0.03 , -0.023, -0.007, -0.092,
  -0.055, -0.104, -0.124, -0.061, -0.023, -0.05 , -0.066, -0.15 , -0.171,
  -0.195, -0.107, -0.109, -0.082,  0.008,  0.098,  0.128,  0.165,  0.184,
   0.267,  0.394,  0.315,  0.112,  0.064, -0.001,  0.003, -0.056, -0.023,
  -0.137, -0.095, -0.128, -0.119, -0.066, -0.123, -0.078, -0.131, -0.173,
  -0.12 , -0.188, -0.187, -0.143, -0.122, -0.06 , -0.061, -0.008,  0.043,
   0.05 ,  0.177,  0.368,  0.348,  0.182,  0.071,  0.06 ,  0.009, -0.032,
  -0.183, -0.227, -0.217, -0.138, -0.188, -0.1  , -0.111, -0.153, -0.112,
  -0.139, -0.197, -0.167, -0.202, -0.204, -0.191, -0.112, -0.155, -0.133,
  -0.089, -0.037,  0.02 ,  0.201,  0.332,  0.256,  0.092,  0.057,  0.055,
  -0.101, -0.148, -0.249, -0.291, -0.234, -0.236, -0.176, -0.158, -0.131,
  -0.152, -0.15 , -0.17 , -0.159, -0.23 , -0.232, -0.193, -0.171, -0.178,
  -0.16 , -0.162, -0.097, -0.046,  0.101,  0.317,  0.296,  0.096,  0.039,
  -0.007, -0.127, -0.174, -0.263, -0.312, -0.228, -0.185, -0.131, -0.029,
  -0.105, -0.064,  0.007, -0.046, -0.071, -0.227, -0.316, -0.252, -0.261,
  -0.243, -0.215, -0.163, -0.142, -0.041,  0.14 ,  0.284,  0.246,  0.013,
   0.012, -0.05 , -0.105, -0.22 , -0.316, -0.218, -0.182, -0.135,  0.014,
   0.059,  0.092,  0.09 ,  0.111,  0.167,  0.041, -0.189, -0.276, -0.296,
  -0.219, -0.25 , -0.24 , -0.186, -0.166, -0.105,  0.053,  0.269,  0.183,
   0.022,  0.002, -0.071, -0.131, -0.241, -0.286, -0.21 , -0.042,  0.094,
   0.116,  0.152,  0.176,  0.186,  0.265,  0.305,  0.211, -0.066, -0.23 ,
  -0.196, -0.203, -0.234, -0.215, -0.232, -0.12 , -0.082,  0.083,  0.147,
  -0.034, -0.083,  0.014, -0.067, -0.109, -0.157, -0.209, -0.141,  0.062,
   0.216,  0.264,  0.204,  0.212,  0.291,  0.414,  0.428,  0.262, -0.038,
  -0.109, -0.112, -0.162, -0.134, -0.177, -0.156, -0.039,  0.047,  0.16 ,
   0.127, -0.102, -0.161, -0.091, -0.009, -0.092, -0.17 , -0.167, -0.048,
   0.172,  0.333,  0.313,  0.265,  0.258,  0.324,  0.394,  0.338,  0.071,
  -0.119, -0.059, -0.061, -0.062, -0.097, -0.019,  0.02 ,  0.061,  0.15 ,
   0.249,  0.112, -0.183, -0.186, -0.095,  0.054, -0.03 , -0.118, -0.07 ,
   0.017,  0.219,  0.278,  0.276,  0.258,  0.26 ,  0.327,  0.279,  0.166,
  -0.036, -0.144, -0.102, -0.064, -0.061, -0.061,  0.039,  0.054,  0.08 ,
   0.221,  0.209,  0.082, -0.161, -0.188, -0.039,  0.03 ,  0.049, -0.015,
  -0.064, -0.093,  0.1  ,  0.159,  0.173,  0.206,  0.179,  0.221,  0.148,
  -0.006, -0.124, -0.134, -0.069, -0.054, -0.056, -0.041,  0.025,  0.064,
   0.092,  0.149,  0.162,  0.003, -0.121, -0.189, -0.119, -0.026,  0.034,
  -0.071, -0.19 , -0.212, -0.032,  0.077,  0.109,  0.104,  0.116,  0.103,
   0.028, -0.135, -0.166, -0.092, -0.013, -0.075, -0.05 ,  0.019,  0.058,
   0.107,  0.094,  0.057,  0.031, -0.033, -0.207, -0.265, -0.07 ,  0.026,
   0.014, -0.048, -0.168, -0.224, -0.061,  0.025,  0.046,  0.075,  0.032,
   0.093, -0.001, -0.149, -0.134, -0.026, -0.021, -0.018, -0.023,  0.055,
   0.054,  0.107,  0.06 , -0.013, -0.02 , -0.094, -0.238, -0.235, -0.138,
  -0.017, -0.019,  0.005, -0.189, -0.194, -0.164, -0.002, -0.005,  0.035,
   0.04 ,  0.02 ,  0.017, -0.012, -0.08 , -0.001, -0.004,  0.018,  0.033,
   0.073,  0.07 ,  0.021,  0.005,  0.017, -0.064, -0.135, -0.226, -0.13 ,
  -0.048,  0.048, -0.021, -0.01 , -0.081, -0.163, -0.15 , -0.09 , -0.04 ,
  -0.041,  0.018,  0.087,  0.122,  0.05 ,  0.022,  0.036,  0.115,  0.126,
   0.11 ,  0.085,  0.061,  0.039, -0.003, -0.037, -0.101, -0.138, -0.273,
  -0.152, -0.06 ,  0.029,  0.022,  0.015, -0.116, -0.169, -0.149, -0.161,
  -0.121, -0.062, -0.039,  0.085,  0.17 ,  0.171,  0.174,  0.173,  0.177,
   0.167,  0.122,  0.04 ,  0.002, -0.005, -0.047, -0.058, -0.098, -0.199,
  -0.181, -0.141,  0.022, -0.003, -0.046, -0.01 , -0.079, -0.127, -0.117,
  -0.161, -0.129, -0.08 , -0.043,  0.06 ,  0.151,  0.184,  0.186,  0.171,
   0.198,  0.102,  0.105,  0.022, -0.033, -0.061, -0.007, -0.045, -0.13 ,
  -0.15 , -0.155, -0.079,  0.055,  0.012,  0.043,  0.008, -0.078, -0.059,
  -0.131, -0.187, -0.222, -0.138, -0.12 , -0.068, -0.032,  0.058,  0.083,
   0.091,  0.023,  0.034, -0.018, -0.026, -0.07 , -0.022, -0.039, -0.053,
  -0.116, -0.113, -0.106,  0.052,  0.02 , -0.025, -0.027,  0.09 ,  0.044,
  -0.082, -0.081, -0.102, -0.14 , -0.096, -0.033, -0.093, -0.077, -0.037,
  -0.075, -0.04 , -0.017, -0.026, -0.017,  0.005,  0.002, -0.003,  0.023,
  -0.051, -0.018, -0.088, -0.047, -0.013, -0.025,  0.028,  0.03 ,  0.042,
   0.018, -0.125, -0.119, -0.094, -0.144, -0.111, -0.04 , -0.044, -0.099,
  -0.115, -0.087, -0.091, -0.077, -0.026, -0.029, -0.011,  0.022, -0.004,
  -0.055, -0.015, -0.009, -0.044, -0.031, -0.056, -0.022,  0.   , -0.031,
   0.079, -0.007, -0.099, -0.165, -0.193, -0.194, -0.286, -0.233, -0.228,
  -0.337, -0.335, -0.272, -0.292, -0.217, -0.208, -0.194, -0.213, -0.201,
  -0.152, -0.077,  0.024,  0.09 ,  0.036, -0.023, -0.049,  0.03 , -0.009,
   0.032,  0.019, -0.021, -0.017, -0.021, -0.073, -0.236, -0.275, -0.315,
  -0.297, -0.293, -0.26 , -0.305, -0.347, -0.354, -0.309, -0.308, -0.274,
  -0.274, -0.124, -0.089, -0.108,  0.005, -0.035, -0.013, -0.016,  0.007,
  -0.01 , -0.021,  0.006,  0.025, -0.056, -0.109, -0.087, -0.084, -0.159,
  -0.109, -0.164, -0.14 , -0.131, -0.283, -0.244, -0.216, -0.236, -0.308,
  -0.204, -0.16 , -0.008, -0.06 , -0.052, -0.047,  0.005, -0.019, -0.033,
   0.027, 0.019,  0.027,  0.004,  0.006, -0.023,  0.024, -0.025,  0.025,  0.02 ,
   0.03 ,  0.01 , -0.03 ,  0.009,  0.01 ,  0.054,  0.014,  0.032, -0.025,
   0.029,  0.018,  0.008, -0.01 , -0.026,  0.026, -0.002, -0.021, -0.025,
   0.014,  0.031,  0.011, -0.007,  0.019, -0.002,  0.06 ,  0.058,  0.092,
   0.086,  0.096,  0.09 ,  0.135,  0.113,  0.112, -0.024, -0.015,  0.155,
   0.114, -0.009, -0.01 ,  0.019,  0.013,  0.084,  0.062,  0.019,  0.014,
   0.027, -0.021, -0.03 ,  0.024,  0.032,  0.018,  0.016, -0.014,  0.034,
   0.1  ,  0.166,  0.179,  0.22 ,  0.264,  0.235,  0.155,  0.088,  0.041,
   0.125,  0.204,  0.17 ,  0.1  ,  0.135,  0.055,  0.079,  0.07 ,  0.066,
   0.042, -0.021, -0.031, -0.024, -0.014,  0.012,  0.057,  0.014, -0.012,
   0.114,  0.198,  0.191,  0.244,  0.274,  0.268,  0.269,  0.179,  0.18 ,
   0.138,  0.164,  0.198,  0.281,  0.267,  0.209,  0.19 ,  0.2  ,  0.08 ,
   0.121,  0.058,  0.064,  0.035, -0.031, -0.039, -0.021, -0.063, -0.108,
   0.045,  0.129,  0.13 ,  0.102,  0.181,  0.133,  0.18 ,  0.116,  0.108,
   0.124,  0.142,  0.186,  0.191,  0.182,  0.095,  0.001,  0.027,  0.003,
   0.017,  0.158,  0.169,  0.127,  0.055, -0.017,  0.002, -0.03 , -0.031,
  -0.024, -0.065,  0.028,  0.101,  0.169,  0.162,  0.131,  0.097,  0.099,
   0.081,  0.079,  0.172,  0.227,  0.271,  0.183,  0.133,  0.135,  0.077,
   0.091,  0.082,  0.156,  0.344,  0.196,  0.083,  0.018,  0.027,  0.011,
  -0.05 , -0.002, -0.011, -0.021,  0.07 ,  0.05 ,  0.117,  0.084,  0.01 ,
   0.051,  0.052, -0.004,  0.067,  0.035,  0.072,  0.085,  0.061,  0.042,
   0.07 ,  0.056,  0.15 ,  0.261,  0.432,  0.251,  0.078, -0.012,  0.06 ,
  -0.095, -0.119,  0.009, -0.039,  0.015,  0.04 ,  0.059,  0.064,  0.065,
   0.022, -0.007, -0.016, -0.034, -0.119, -0.099, -0.03 , -0.019,  0.027,
   0.029,  0.092,  0.13 ,  0.165,  0.326,  0.398,  0.184,  0.102, -0.014,
  -0.037, -0.12 , -0.076, -0.059, -0.001,  0.003, -0.031,  0.011,  0.092,
   0.089,  0.066,  0.01 , -0.077, -0.11 , -0.15 , -0.075, -0.027, -0.026,
   0.033,  0.068,  0.084,  0.166,  0.219,  0.39 ,  0.436,  0.264,  0.058,
   0.001, -0.124, -0.08 , -0.086, -0.041,  0.018,  0.013,  0.014, -0.   ,
   0.032,  0.122,  0.074, -0.025, -0.097, -0.215, -0.249, -0.143, -0.075,
   0.016,  0.08 ,  0.06 ,  0.114,  0.131,  0.254,  0.462,  0.545,  0.282,
   0.031, -0.039, -0.121, -0.106, -0.121, -0.042, -0.006, -0.009, -0.046,
  -0.008, -0.005, -0.005, -0.025, -0.058, -0.162, -0.257, -0.333, -0.23 ,
  -0.124, -0.064, -0.041,  0.004, -0.065, -0.056,  0.154,  0.398,  0.45 ,
   0.244,  0.013, -0.037, -0.077, -0.155, -0.14 , -0.09 , -0.081, -0.076,
  -0.14 , -0.117, -0.058, -0.12 , -0.096, -0.068, -0.118, -0.311, -0.374,
  -0.215, -0.163, -0.155, -0.114, -0.174, -0.259, -0.262, -0.078,  0.204,
   0.35 ,  0.256, -0.   , -0.078, -0.117, -0.159, -0.215, -0.178, -0.161,
  -0.178, -0.245, -0.205, -0.113, -0.058,  0.065,  0.123,  0.034, -0.281,
  -0.336, -0.195, -0.182, -0.098, -0.085, -0.186, -0.297, -0.358, -0.289,
  -0.004,  0.173,  0.147, -0.01 , -0.022, -0.052, -0.155, -0.17 , -0.189,
  -0.221, -0.237, -0.168, -0.101,  0.046,  0.167,  0.277,  0.337,  0.098,
  -0.114, -0.187, -0.157, -0.108, -0.064, -0.119, -0.176, -0.198, -0.278,
  -0.16 , -0.023,  0.209,  0.218,  0.031,  0.051, -0.076, -0.163, -0.102,
  -0.185, -0.193, -0.155, -0.078,  0.021,  0.165,  0.266,  0.349,  0.31 ,
   0.168, -0.066, -0.125, -0.068, -0.035, -0.031, -0.116, -0.131, -0.169,
  -0.195, -0.105,  0.059,  0.141,  0.243,  0.048,  0.03 , -0.061, -0.049,
   0.036, -0.022, -0.071, -0.02 , -0.021,  0.097,  0.184,  0.181,  0.244,
   0.265,  0.11 ,  0.024, -0.045,  0.011, -0.039, -0.037, -0.058, -0.158,
  -0.122, -0.14 , -0.092,  0.129,  0.269,  0.213,  0.044, -0.054,  0.007,
   0.038,  0.191,  0.071,  0.085,  0.078, -0.016, -0.01 ,  0.058,  0.064,
   0.14 ,  0.204,  0.068, -0.05 , -0.019,  0.014,  0.06 ,  0.006,  0.004,
  -0.04 , -0.001,  0.021,  0.111,  0.219,  0.401,  0.236,  0.106,  0.019,
  -0.051,  0.034,  0.259,  0.217,  0.214,  0.264,  0.11 ,  0.011, -0.046,
   0.01 ,  0.111,  0.068, -0.044, -0.083, -0.009,  0.088,  0.084,  0.054,
   0.046,  0.063,  0.128,  0.096,  0.132,  0.192,  0.33 ,  0.202,  0.095,
  -0.051, -0.104, -0.041,  0.241,  0.332,  0.331,  0.362,  0.267,  0.084,
   0.051,  0.013,  0.07 ,  0.066, -0.054, -0.086,  0.04 ,  0.107,  0.128,
   0.076,  0.117,  0.092,  0.131,  0.197,  0.296,  0.319,  0.302,  0.077,
   0.054,  0.006, -0.091, -0.013,  0.182,  0.349,  0.358,  0.361,  0.252,
   0.176,  0.15 ,  0.125,  0.09 ,  0.119,  0.026, -0.032,  0.048,  0.097,
   0.093,  0.163,  0.085,  0.173,  0.218,  0.228,  0.288,  0.187,  0.195,
   0.088,  0.013, -0.008, -0.006,  0.119,  0.236,  0.317,  0.269,  0.251,
   0.26 ,  0.217,  0.156,  0.109,  0.126,  0.048,  0.022, -0.042,  0.015,
   0.034,  0.096,  0.139,  0.17 ,  0.195,  0.217,  0.253,  0.258,  0.184,
   0.115,  0.039,  0.011, -0.034, -0.006,  0.076,  0.232,  0.242,  0.083,
   0.123,  0.161,  0.125,  0.117,  0.064,  0.069,  0.092,  0.109,  0.058,
   0.032,  0.037,  0.122,  0.175,  0.205,  0.196,  0.274,  0.328,  0.273,
   0.087,  0.089,  0.072, -0.011, -0.008, -0.024,  0.086,  0.17 ,  0.16 ,
  -0.007,  0.007,  0.014,  0.062,  0.074,  0.05 ,  0.094,  0.137,  0.104,
   0.041,  0.011,  0.   ,  0.047,  0.14 ,  0.229,  0.254,  0.273,  0.285,
   0.197,  0.073,  0.048, -0.029, -0.008, -0.015, -0.032,  0.07 ,  0.194,
   0.073, -0.041, -0.103, -0.072,  0.025,  0.015,  0.055,  0.098,  0.092,
   0.103,  0.036, -0.015,  0.012,  0.015,  0.138,  0.217,  0.229,  0.174,
   0.149,  0.179,  0.076,  0.043, -0.053, -0.035, -0.001,  0.004,  0.009,
   0.013, -0.026, -0.161, -0.162, -0.075, -0.039,  0.05 ,  0.076,  0.127,
   0.155,  0.159,  0.2  ,  0.124,  0.098,  0.084,  0.09 ,  0.061,  0.03 ,
   0.055,  0.046,  0.04 ,  0.13 ,  0.107,  0.024, -0.008,  0.014,  0.009,
   0.049, -0.043, -0.074, -0.13 , -0.099, -0.108, -0.123, -0.105, -0.017,
  -0.016, -0.014,  0.027, -0.004,  0.049,  0.012, -0.06 , -0.076, -0.104,
  -0.108, -0.122, -0.045,  0.037,  0.032,  0.039,  0.011,  0.028, -0.034,
   0.009, -0.007, -0.022, -0.081, -0.053, -0.119, -0.196, -0.225, -0.261,
  -0.165, -0.165, -0.166, -0.217, -0.244, -0.26 , -0.219, -0.224, -0.206,
  -0.15 , -0.099, -0.047, -0.057, -0.014, -0.023, -0.047,  0.029,  0.027,
   0.019, -0.034,  0.001,  0.03 , -0.056, -0.061, -0.108, -0.132, -0.113,
  -0.105, -0.103, -0.08 , -0.096, -0.224, -0.286, -0.195, -0.251, -0.278,
  -0.207, -0.188, -0.053, -0.036, -0.089, -0.063, -0.01 ,  0.031, -0.03 ,
  -0.023
};

const float input_biases[HIDDEN_SIZE] = {
  -0.043,  0.144, -0.171, -0.191, -0.195,  0.24 ,  0.026, -0.094
};

const float output_weights[HIDDEN_SIZE * OUTPUT_SIZE] = {
  0.33 ,  0.242,  0.58 , -0.807, -0.702, -0.498,  0.194, -0.028,
 -0.548, -0.571,  0.136, -0.39 ,  0.783,  0.53 , -0.107, -0.811,
 -0.342,  0.29 ,  0.651,  0.113, -0.054,  0.25 , -0.623,  0.628,
  0.357, -0.708, -0.146,  0.421, -0.483,  0.332, -0.4  ,  0.214,
  0.472,  0.558, -0.547,  0.336,  0.733,  0.13 ,  0.574,  0.015,
 -0.49 , -0.173, -0.657, -0.102, -0.456, -0.336,  0.43 ,  0.515,
 -0.387,  0.108,  0.801,  0.392,  0.364,  0.072,  0.934,  0.091,
 -0.044,  0.664, -0.555, -0.097, -0.551,  0.038, -0.686, -0.959,
 -0.446, -0.24 , -0.168,  0.004,  0.507, -0.729, -0.171,  0.198,
  0.321,  0.234, -0.187,  0.559,  0.011, -0.698, -0.252, -0.624
};

const float output_biases[OUTPUT_SIZE] = {
  -0.069, -0.045,  0.018, -0.193, -0.124,  0.289,  0.14 , -0.014, -0.08 ,
 -0.197
};
